<?xml version="1.0"?>
<opencv_storage>
<cascade>
  <stageType>BOOST</stageType>
  <featureType>HAAR</featureType>
  <height>24</height>
  <width>24</width>
  <stageParams>
    <boostType>RAB</boostType>
    <minHitRate>9.9800002574920654e-01</minHitRate>
    <maxFalseAlarm>5.0000000000000000e-01</maxFalseAlarm>
    <weightTrimRate>9.4999999999999996e-01</weightTrimRate>
    <maxDepth>5</maxDepth>
    <maxWeakCount>100</maxWeakCount></stageParams>
  <featureParams>
    <maxCatCount>0</maxCatCount>
    <featSize>1</featSize>
    <mode>BASIC</mode></featureParams>
  <stageNum>10</stageNum>
  <stages>
    <!-- stage 0 -->
    <_>
      <maxWeakCount>1</maxWeakCount>
      <stageThreshold>3.4657359123229980e-01</stageThreshold>
      <weakClassifiers>
        <_>
          <internalNodes>
            1 2 159 -1.0252026841044426e-02 3 4 144
            2.6545603759586811e-03 5 6 179 -4.9473598599433899e-02 7 8
            65 -1.2973743490874767e-02 9 0 209 2.5489234831184149e-03 -1
            -2 108 6.0048606246709824e-03 10 11 183
            -4.5399278402328491e-02 12 13 55 -9.1777537018060684e-03 -3
            14 191 -2.7930993586778641e-02 -4 -5 178
            1.0497002862393856e-02 -6 -7 25 -1.0584297589957714e-02 -8
            15 100 -5.8160629123449326e-02 -9 -10 13
            3.9252085844054818e-04 -11 -12 20 3.6113525275141001e-03 -13
            -14 33 7.9657331109046936e-02 -15 -16 170
            1.0555012524127960e-01</internalNodes>
          <leafValues>
            -5.7564578056335449e+00 -5.7564578056335449e+00
            5.7564578056335449e+00 8.9587974548339844e-01
            5.7564578056335449e+00 -5.7564578056335449e+00
            5.7564578056335449e+00 -5.7564578056335449e+00
            3.4657359123229980e-01 -5.7564578056335449e+00
            5.7564578056335449e+00 5.7564578056335449e+00
            -5.7564578056335449e+00 -5.7564578056335449e+00
            5.7564578056335449e+00 -2.6699695587158203e+00
            5.7564578056335449e+00</leafValues></_></weakClassifiers></_>
    <!-- stage 1 -->
    <_>
      <maxWeakCount>1</maxWeakCount>
      <stageThreshold>6.9314718246459961e-01</stageThreshold>
      <weakClassifiers>
        <_>
          <internalNodes>
            1 2 88 -1.4814173802733421e-02 0 3 45
            -3.2814529538154602e-01 4 5 165 -5.0935442559421062e-03 6 -1
            46 8.0350089073181152e-01 -2 -3 35 2.1568632125854492e-01 7
            8 166 2.8865702450275421e-02 9 -4 54 4.5808011293411255e-01
            10 -5 242 4.2106057517230511e-03 -6 -7 225
            -1.4335701707750559e-03 -8 -9 42 -6.6123849153518677e-01 -10
            -11 233 -4.4158659875392914e-03</internalNodes>
          <leafValues>
            -5.7564578056335449e+00 -5.7564578056335449e+00
            5.7564578056335449e+00 -5.7564578056335449e+00
            -5.7564578056335449e+00 5.7564578056335449e+00
            -5.7564578056335449e+00 5.7564578056335449e+00
            -5.7564578056335449e+00 5.7564578056335449e+00
            6.9314718246459961e-01 -5.7564578056335449e+00</leafValues></_></weakClassifiers></_>
    <!-- stage 2 -->
    <_>
      <maxWeakCount>2</maxWeakCount>
      <stageThreshold>2.2755131112717208e-12</stageThreshold>
      <weakClassifiers>
        <_>
          <internalNodes>
            1 2 162 5.7741105556488037e-03 3 4 117
            4.2136140167713165e-02 5 0 77 1.3856226205825806e-01 6 7 132
            -4.2903698980808258e-02 -1 8 72 -2.0396370440721512e-02 9 10
            60 -3.7511754035949707e-01 -2 -3 39 -1.9682833552360535e-01
            11 12 164 2.1824285387992859e-02 -4 -5 89
            -3.8330270908772945e-03 -6 -7 1 5.8640498900786042e-04 -8 13
            153 -2.0122197270393372e-01 -9 -10 230
            -3.0025232583284378e-02 -11 -12 28 -2.4181643966585398e-03
            -13 -14 180 1.4608415961265564e-01</internalNodes>
          <leafValues>
            -5.7564578056335449e+00 -5.7564578056335449e+00
            -5.7564578056335449e+00 5.7564578056335449e+00
            5.7564578056335449e+00 -5.7564578056335449e+00
            -5.7564578056335449e+00 5.7564578056335449e+00
            -5.7564578056335449e+00 1.1512925624847412e+00
            -2.0704321861267090e+00 -5.7564578056335449e+00
            5.7564578056335449e+00 3.1965165138244629e+00
            -5.7564578056335449e+00</leafValues></_>
        <_>
          <internalNodes>
            1 2 102 2.7929123491048813e-02 3 0 174
            7.1940701454877853e-03 4 5 124 -1.4840327203273773e-01 -1 6
            231 -2.5435179471969604e-02 -2 -3 86 6.9295414723455906e-03
            7 8 37 5.5948424339294434e-01 9 -4 98 6.8949842825531960e-03
            10 -5 94 2.1682444214820862e-01 -6 -7 12
            -3.1212847679853439e-03 -8 -9 43 -4.8883879184722900e-01 -10
            -11 195 4.0991470217704773e-02</internalNodes>
          <leafValues>
            5.7564578056335449e+00 5.7564578056335449e+00
            -5.7564578056335449e+00 5.7564578056335449e+00
            5.7564578056335449e+00 -5.7564578056335449e+00
            5.7564578056335449e+00 -5.7564578056335449e+00
            5.7564578056335449e+00 -5.7564578056335449e+00
            3.0878167152404785e+00 -5.7564578056335449e+00</leafValues></_></weakClassifiers></_>
    <!-- stage 3 -->
    <_>
      <maxWeakCount>2</maxWeakCount>
      <stageThreshold>2.2755131112717208e-12</stageThreshold>
      <weakClassifiers>
        <_>
          <internalNodes>
            1 2 173 8.3256904035806656e-03 3 4 237
            7.3230825364589691e-03 5 6 56 1.8567785620689392e-02 7 8 58
            6.4695283770561218e-02 9 10 90 -9.9565945565700531e-03 11 0
            142 1.0070092976093292e-01 -1 -2 84 -5.7757291942834854e-03
            12 13 212 -5.3659483790397644e-02 -3 -4 64
            -4.3971469998359680e-01 -5 -6 18 -3.1753815710544586e-03 -7
            14 210 1.9544234499335289e-02 15 -8 36
            1.9604347646236420e-01 -9 -10 118 5.6360751390457153e-02 -11
            -12 68 -5.2464731037616730e-02 -13 -14 34
            8.3572305738925934e-02 -15 -16 2 -4.2284727096557617e-03</internalNodes>
          <leafValues>
            -6.9314718246459961e-01 5.7564578056335449e+00
            -5.7564578056335449e+00 -5.7564578056335449e+00
            5.7564578056335449e+00 -5.7564578056335449e+00
            5.7564578056335449e+00 -5.7564578056335449e+00
            -5.7564578056335449e+00 5.7564578056335449e+00
            -5.7564578056335449e+00 2.6949825882911682e-01
            -2.1313400268554688e+00 5.7564578056335449e+00
            -5.7564578056335449e+00 -5.7564578056335449e+00
            3.7138693332672119e+00</leafValues></_>
        <_>
          <internalNodes>
            1 2 202 -8.1460801884531975e-03 3 4 200
            1.3329696841537952e-02 5 0 175 1.0564276017248631e-02 6 7
            220 6.3388922717422247e-04 8 9 61 4.0809996426105499e-04 10
            -1 198 2.6086021680384874e-03 -2 -3 173
            8.7334830313920975e-03 11 12 219 -1.5389040112495422e-01 13
            -4 103 3.6996662616729736e-02 -5 -6 63
            3.7090408150106668e-03 14 -7 96 3.6468535661697388e-02 -8 -9
            154 7.9996883869171143e-03 -10 -11 190
            -4.6638972125947475e-03 -12 -13 44 3.7035936117172241e-01
            -14 -15 31 -2.4435123428702354e-02</internalNodes>
          <leafValues>
            5.7564578056335449e+00 5.7564578056335449e+00
            -5.7564578056335449e+00 5.7564578056335449e+00
            -5.7564578056335449e+00 -5.7564578056335449e+00
            5.7564578056335449e+00 5.7564578056335449e+00
            -5.7564578056335449e+00 5.7564578056335449e+00
            -1.1378383636474609e+00 2.1432707309722900e+00
            5.7564578056335449e+00 -5.7564578056335449e+00
            5.7564578056335449e+00 -5.7564578056335449e+00</leafValues></_></weakClassifiers></_>
    <!-- stage 4 -->
    <_>
      <maxWeakCount>1</maxWeakCount>
      <stageThreshold>-6.2638145685195923e-01</stageThreshold>
      <weakClassifiers>
        <_>
          <internalNodes>
            1 2 147 -3.5507962107658386e-02 3 4 105
            4.0689587593078613e-01 5 6 215 -4.9260113388299942e-02 7 8
            204 -7.7925987541675568e-02 0 -1 176 -3.9475582540035248e-02
            -2 -3 137 -2.2655367851257324e-01 9 10 161
            4.0043774992227554e-02 -4 -5 8 -5.3597902879118919e-03 11 12
            201 6.4954925328493118e-03 -6 13 189 -3.1364124268293381e-02
            -7 -8 59 -2.9981885105371475e-02 -9 -10 196
            8.2023115828633308e-03 -11 -12 17 5.7219834998250008e-03 -13
            -14 185 4.2467243969440460e-02</internalNodes>
          <leafValues>
            5.7564578056335449e+00 -5.7564578056335449e+00
            -5.7564578056335449e+00 5.7564578056335449e+00
            5.7564578056335449e+00 -5.7564578056335449e+00
            1.0986123085021973e+00 -5.7564578056335449e+00
            5.7564578056335449e+00 2.6245634555816650e+00
            -6.2638145685195923e-01 -5.7564578056335449e+00
            5.7564578056335449e+00 -2.6155543327331543e+00
            5.7564578056335449e+00</leafValues></_></weakClassifiers></_>
    <!-- stage 5 -->
    <_>
      <maxWeakCount>1</maxWeakCount>
      <stageThreshold>-1.7005987167358398e+00</stageThreshold>
      <weakClassifiers>
        <_>
          <internalNodes>
            1 2 67 -1.2977501377463341e-02 3 4 240
            2.0032189786434174e-03 5 6 208 1.8775213509798050e-02 7 8
            101 1.9787229597568512e-02 0 9 26 -1.6270567476749420e-01 10
            11 146 4.7806676477193832e-02 12 13 114
            7.9749198630452156e-04 -1 -2 184 5.2104547619819641e-02 -3
            14 145 2.9671317315660417e-04 -4 15 157
            -1.8821933865547180e-01 -5 16 111 -3.7817806005477905e-02 17
            18 125 9.2306283477228135e-05 -6 -7 17
            -2.9154913499951363e-03 -8 -9 27 -5.7388402521610260e-02 -10
            -11 10 -2.4171546101570129e-03 -12 -13 156
            -3.8886690139770508e-01 -14 -15 140 -9.3768700957298279e-02
            -16 -17 136 1.7507727444171906e-01 -18 -19 73
            2.5951696559786797e-02</internalNodes>
          <leafValues>
            -5.7564578056335449e+00 -5.7564578056335449e+00
            5.7564578056335449e+00 5.7564578056335449e+00
            -5.7564578056335449e+00 5.7564578056335449e+00
            5.7564578056335449e+00 -5.7564578056335449e+00
            -5.7564578056335449e+00 5.7564578056335449e+00
            5.7564578056335449e+00 -5.7564578056335449e+00
            -5.7564578056335449e+00 5.7564578056335449e+00
            5.7564578056335449e+00 -2.3636939525604248e+00
            1.8187930583953857e+00 -5.7564578056335449e+00
            -1.7005987167358398e+00 5.7564578056335449e+00</leafValues></_></weakClassifiers></_>
    <!-- stage 6 -->
    <_>
      <maxWeakCount>2</maxWeakCount>
      <stageThreshold>2.2755131112717208e-12</stageThreshold>
      <weakClassifiers>
        <_>
          <internalNodes>
            1 2 113 -1.5730913728475571e-03 3 4 238
            4.4014275772497058e-04 5 6 232 1.8332630395889282e-02 7 8 91
            -3.8086868822574615e-02 9 10 119 -1.8947508931159973e-01 11
            12 224 -2.7829123660922050e-02 13 14 51
            7.0415571331977844e-02 0 -1 11 5.6149424053728580e-03 15 -2
            207 4.8224419355392456e-02 -3 -4 3 2.9538042144849896e-04 -5
            16 143 -1.2044499814510345e-01 -6 -7 48
            1.3188157230615616e-02 -8 17 131 -8.2843620330095291e-03 18
            19 194 -1.3380751479417086e-03 -9 -10 6
            -1.5691516455262899e-03 -11 -12 16 -8.9660640805959702e-03
            -13 -14 151 -1.6320791840553284e-01 -15 -16 112
            -1.4318894594907761e-02 -17 -18 62 3.3958643674850464e-02
            -19 -20 57 -1.0135134682059288e-02</internalNodes>
          <leafValues>
            5.7564578056335449e+00 -5.7564578056335449e+00
            1.0986123085021973e+00 -5.7564578056335449e+00
            5.7564578056335449e+00 -5.7564578056335449e+00
            -5.7564578056335449e+00 5.7564578056335449e+00
            5.7564578056335449e+00 5.7564578056335449e+00
            -5.7564578056335449e+00 5.7564578056335449e+00
            -5.7564578056335449e+00 -4.5814538002014160e-01
            2.7468245029449463e+00 8.0471897125244141e-01
            -1.6591864824295044e+00 5.7564578056335449e+00
            -5.7564578056335449e+00 5.7564578056335449e+00
            -8.3698821067810059e-01</leafValues></_>
        <_>
          <internalNodes>
            1 2 87 -6.4443768933415413e-03 3 4 121
            -8.5843890905380249e-02 5 6 226 -5.9776694979518652e-04 0 -1
            69 -1.1040891520678997e-02 7 8 235 -6.7427176982164383e-03 9
            10 236 -4.6382565051317215e-04 11 12 222
            -8.3411056548357010e-03 -2 -3 23 -2.7409624308347702e-02 -4
            13 169 -3.9517927914857864e-02 14 -5 83
            -3.5274745896458626e-03 15 16 234 -1.4546334277838469e-03 -6
            -7 76 8.9838802814483643e-03 -8 17 80
            -4.6259701251983643e-02 -9 -10 149 -3.8695275783538818e-02
            -11 -12 0 2.6181985158473253e-03 -13 -14 78
            -7.0484533905982971e-02 -15 -16 97 -1.6881817718967795e-03
            -17 -18 66 -1.2602585554122925e-01</internalNodes>
          <leafValues>
            5.7564578056335449e+00 -5.7564578056335449e+00
            5.7564578056335449e+00 -5.7564578056335449e+00
            -1.4396988153457642e+00 -5.7564578056335449e+00
            5.7564578056335449e+00 -5.7564578056335449e+00
            5.7564578056335449e+00 -5.7564578056335449e+00
            3.2943124771118164e+00 5.7564578056335449e+00
            -5.7564578056335449e+00 5.7564578056335449e+00
            -5.7564578056335449e+00 -9.1283917427062988e-01
            2.2644104957580566e+00 4.9945363402366638e-01
            -2.2354350090026855e+00</leafValues></_></weakClassifiers></_>
    <!-- stage 7 -->
    <_>
      <maxWeakCount>2</maxWeakCount>
      <stageThreshold>2.2755131112717208e-12</stageThreshold>
      <weakClassifiers>
        <_>
          <internalNodes>
            1 2 241 6.0855192714370787e-05 3 4 163
            -8.8932082056999207e-02 5 6 192 4.3145362287759781e-03 7 8
            47 -2.0947551820427179e-03 9 10 223 -3.3081598579883575e-02
            11 12 139 3.4952096175402403e-03 13 14 182
            -6.1038430430926383e-05 0 -1 14 -5.6500979699194431e-03 15
            -2 127 4.2101675644516945e-03 -3 -4 15
            -9.6750816737767309e-05 16 17 81 1.2999248504638672e-01 -5
            18 167 -3.7779085338115692e-02 19 -6 29
            2.5986634194850922e-02 20 21 120 5.8988846838474274e-02 -7
            22 85 4.3435115367174149e-04 -8 -9 7 -1.4506783336400986e-03
            -10 -11 172 1.7400976503267884e-04 -12 -13 50
            -3.1427078647539020e-04 -14 -15 221 5.1361851394176483e-02
            -16 -17 0 -9.1088173212483525e-04 -18 -19 239
            -4.1464660316705704e-03 -20 -21 5 8.7857950711622834e-04 -22
            -23 22 1.0636243037879467e-02</internalNodes>
          <leafValues>
            5.7564578056335449e+00 -5.7564578056335449e+00
            -5.7564578056335449e+00 5.7564578056335449e+00
            -5.7564578056335449e+00 5.7564578056335449e+00
            -5.7564578056335449e+00 -5.7564578056335449e+00
            -5.7564578056335449e+00 5.7564578056335449e+00
            -2.0813908576965332e+00 -3.3722752332687378e-01
            5.7564578056335449e+00 -5.7564578056335449e+00
            -2.1972246170043945e+00 5.7564578056335449e+00
            -5.7564578056335449e+00 5.7564578056335449e+00
            -5.7564578056335449e+00 2.4055111408233643e+00
            -5.7564578056335449e+00 5.7564578056335449e+00
            5.7564578056335449e+00 -5.7564578056335449e+00</leafValues></_>
        <_>
          <internalNodes>
            1 2 227 -2.0514766220003366e-03 3 4 217
            9.2210088041611016e-05 5 6 109 2.6519730687141418e-02 0 7
            107 -3.0041076242923737e-03 8 9 229 -3.8854153826832771e-03
            10 11 160 -6.2516391277313232e-02 12 13 133
            6.5398786682635546e-04 -1 -2 152 -1.6211315989494324e-02 -3
            -4 0 1.0572267638053745e-04 -5 14 186
            -3.4982278943061829e-01 -6 -7 19 -4.9592768773436546e-03 -8
            15 123 -3.3684748411178589e-01 -9 -10 9
            -1.9184939563274384e-02 -11 -12 24 -3.3613942563533783e-02
            -13 -14 228 5.6500423699617386e-02 -15 -16 177
            -1.1162450164556503e-01</internalNodes>
          <leafValues>
            5.7564578056335449e+00 5.7564578056335449e+00
            -5.7564578056335449e+00 -5.7564578056335449e+00
            5.7564578056335449e+00 -5.7564578056335449e+00
            -5.7564578056335449e+00 5.7564578056335449e+00
            5.7564578056335449e+00 -5.7564578056335449e+00
            5.7564578056335449e+00 5.7564578056335449e+00
            -5.7564578056335449e+00 2.6142466068267822e+00
            -1.3022936582565308e+00 5.8087337017059326e-01
            -1.9417191743850708e+00</leafValues></_></weakClassifiers></_>
    <!-- stage 8 -->
    <_>
      <maxWeakCount>1</maxWeakCount>
      <stageThreshold>-1.7482538223266602e+00</stageThreshold>
      <weakClassifiers>
        <_>
          <internalNodes>
            1 2 92 -4.7956560592865571e-05 3 4 155
            7.6089047070126981e-05 5 6 168 6.1255130276549608e-05 7 8
            135 -9.5587652176618576e-03 9 10 148 4.3266415596008301e-01
            0 11 106 -3.2536484301090240e-02 12 13 187
            2.4371021427214146e-03 14 -1 213 -4.0094610303640366e-03 -2
            -3 197 -3.8796875625848770e-02 15 16 211
            8.9194411411881447e-03 -4 -5 41 -1.6990590374916792e-03 -6
            17 216 -9.3424677848815918e-02 18 -7 71
            3.5275042057037354e-02 -8 19 70 -4.0454929694533348e-03 -9
            -10 21 3.1883479095995426e-03 -11 -12 82
            9.3322068452835083e-02 -13 -14 32 -1.8453737720847130e-02
            -15 -16 138 -4.0920469909906387e-02 -17 -18 158
            -3.0871123075485229e-02 -19 -20 4 -7.1391137316823006e-03</internalNodes>
          <leafValues>
            1.0397207736968994e+00 5.7564578056335449e+00
            6.9314718246459961e-01 -5.7564578056335449e+00
            -5.7564578056335449e+00 5.7564578056335449e+00
            5.7564578056335449e+00 5.7564578056335449e+00
            -5.7564578056335449e+00 5.7564578056335449e+00
            -5.7564578056335449e+00 2.1004078388214111e+00
            -8.0471897125244141e-01 5.7564578056335449e+00
            -5.7564578056335449e+00 5.7564578056335449e+00
            -2.2348661422729492e+00 5.7564578056335449e+00
            -1.7482538223266602e+00 -5.7564578056335449e+00
            5.7564578056335449e+00</leafValues></_></weakClassifiers></_>
    <!-- stage 9 -->
    <_>
      <maxWeakCount>2</maxWeakCount>
      <stageThreshold>2.2755131112717208e-12</stageThreshold>
      <weakClassifiers>
        <_>
          <internalNodes>
            1 2 129 -1.3381587341427803e-02 3 4 93
            8.7673295638523996e-05 5 6 218 1.0691048810258508e-03 7 0
            214 -1.9011381082236767e-03 -1 8 205 -2.3454278707504272e-03
            9 10 203 -5.4745785892009735e-03 11 12 181
            7.3244067607447505e-05 -2 -3 49 3.1736746430397034e-02 -4 13
            74 -4.0039718151092529e-03 -5 -6 99 -7.4783153831958771e-03
            14 -7 128 1.3878656923770905e-01 -8 15 122
            -2.5520852068439126e-04 16 -9 134 1.3417661190032959e-02 -10
            -11 79 2.0573936402797699e-02 -12 -13 199
            4.6164952218532562e-02 -14 -15 52 2.9436878859996796e-02 -16
            -17 9 -2.6060871779918671e-02</internalNodes>
          <leafValues>
            -5.7564578056335449e+00 -5.7564578056335449e+00
            -5.7564578056335449e+00 5.7564578056335449e+00
            -9.7295504808425903e-01 5.7564578056335449e+00
            -5.7564578056335449e+00 5.7564578056335449e+00
            5.7564578056335449e+00 -5.7564578056335449e+00
            2.7982842922210693e+00 -8.9587974548339844e-01
            -9.6495491266250610e-01 1.4166066646575928e+00
            -5.7564578056335449e+00 5.7564578056335449e+00
            -5.7564578056335449e+00 5.7564578056335449e+00</leafValues></_>
        <_>
          <internalNodes>
            1 2 188 3.9842192200012505e-04 3 4 115
            6.5346015617251396e-05 5 6 75 -5.2718259394168854e-03 0 7
            150 -2.8002090752124786e-02 8 9 104 -2.4142229813151062e-04
            -1 10 95 -6.1132228001952171e-03 11 12 206
            -2.8866911306977272e-03 13 -2 218 1.0749963112175465e-03 -3
            -4 110 -2.6865113526582718e-02 14 15 116
            1.5818304382264614e-03 -5 -6 38 -1.3793485239148140e-02 16
            -7 171 7.5411997386254370e-05 17 18 40
            4.7382578253746033e-02 -8 -9 130 1.7951639369130135e-02 -10
            -11 141 2.8386759757995605e-01 -12 -13 30
            -7.6362088322639465e-02 -14 -15 53 -1.1138156801462173e-01
            -16 -17 126 1.7094885697588325e-03 -18 -19 193
            -1.1820368235930800e-03</internalNodes>
          <leafValues>
            5.7564578056335449e+00 5.7564578056335449e+00
            5.7564578056335449e+00 5.7564578056335449e+00
            -5.7564578056335449e+00 5.7564578056335449e+00
            -5.7564578056335449e+00 5.7564578056335449e+00
            -2.2606101036071777e+00 5.7564578056335449e+00
            5.7564578056335449e+00 -5.7564578056335449e+00
            5.7564578056335449e+00 -5.7564578056335449e+00
            5.7564578056335449e+00 -5.7564578056335449e+00
            2.0233585834503174e+00 -1.4659707546234131e+00
            5.7564578056335449e+00 -5.7564578056335449e+00</leafValues></_></weakClassifiers></_></stages>
  <features>
    <_>
      <rects>
        <_>
          0 0 2 1 -1.</_>
        <_>
          1 0 1 1 2.</_></rects>
      <tilted>0</tilted></_>
    <_>
      <rects>
        <_>
          0 0 1 2 -1.</_>
        <_>
          0 1 1 1 2.</_></rects>
      <tilted>0</tilted></_>
    <_>
      <rects>
        <_>
          0 0 1 3 -1.</_>
        <_>
          0 1 1 1 3.</_></rects>
      <tilted>0</tilted></_>
    <_>
      <rects>
        <_>
          0 0 2 2 -1.</_>
        <_>
          0 0 1 1 2.</_>
        <_>
          1 1 1 1 2.</_></rects>
      <tilted>0</tilted></_>
    <_>
      <rects>
        <_>
          0 0 1 6 -1.</_>
        <_>
          0 3 1 3 2.</_></rects>
      <tilted>0</tilted></_>
    <_>
      <rects>
        <_>
          0 0 1 9 -1.</_>
        <_>
          0 3 1 3 3.</_></rects>
      <tilted>0</tilted></_>
    <_>
      <rects>
        <_>
          0 0 2 4 -1.</_>
        <_>
          1 0 1 4 2.</_></rects>
      <tilted>0</tilted></_>
    <_>
      <rects>
        <_>
          0 0 2 5 -1.</_>
        <_>
          1 0 1 5 2.</_></rects>
      <tilted>0</tilted></_>
    <_>
      <rects>
        <_>
          0 0 2 12 -1.</_>
        <_>
          0 0 1 6 2.</_>
        <_>
          1 6 1 6 2.</_></rects>
      <tilted>0</tilted></_>
    <_>
      <rects>
        <_>
          0 0 1 14 -1.</_>
        <_>
          0 7 1 7 2.</_></rects>
      <tilted>0</tilted></_>
    <_>
      <rects>
        <_>
          0 0 1 18 -1.</_>
        <_>
          0 9 1 9 2.</_></rects>
      <tilted>0</tilted></_>
    <_>
      <rects>
        <_>
          0 0 2 18 -1.</_>
        <_>
          0 0 1 9 2.</_>
        <_>
          1 9 1 9 2.</_></rects>
      <tilted>0</tilted></_>
    <_>
      <rects>
        <_>
          0 0 2 11 -1.</_>
        <_>
          1 0 1 11 2.</_></rects>
      <tilted>0</tilted></_>
    <_>
      <rects>
        <_>
          0 0 2 12 -1.</_>
        <_>
          1 0 1 12 2.</_></rects>
      <tilted>0</tilted></_>
    <_>
      <rects>
        <_>
          0 0 3 13 -1.</_>
        <_>
          1 0 1 13 3.</_></rects>
      <tilted>0</tilted></_>
    <_>
      <rects>
        <_>
          0 0 2 15 -1.</_>
        <_>
          1 0 1 15 2.</_></rects>
      <tilted>0</tilted></_>
    <_>
      <rects>
        <_>
          0 0 2 16 -1.</_>
        <_>
          1 0 1 16 2.</_></rects>
      <tilted>0</tilted></_>
    <_>
      <rects>
        <_>
          0 0 3 16 -1.</_>
        <_>
          1 0 1 16 3.</_></rects>
      <tilted>0</tilted></_>
    <_>
      <rects>
        <_>
          0 0 4 1 -1.</_>
        <_>
          2 0 2 1 2.</_></rects>
      <tilted>0</tilted></_>
    <_>
      <rects>
        <_>
          0 0 6 2 -1.</_>
        <_>
          2 0 2 2 3.</_></rects>
      <tilted>0</tilted></_>
    <_>
      <rects>
        <_>
          0 0 4 4 -1.</_>
        <_>
          0 0 2 2 2.</_>
        <_>
          2 2 2 2 2.</_></rects>
      <tilted>0</tilted></_>
    <_>
      <rects>
        <_>
          0 0 2 9 -1.</_>
        <_>
          0 3 2 3 3.</_></rects>
      <tilted>0</tilted></_>
    <_>
      <rects>
        <_>
          0 0 4 20 -1.</_>
        <_>
          0 0 2 10 2.</_>
        <_>
          2 10 2 10 2.</_></rects>
      <tilted>0</tilted></_>
    <_>
      <rects>
        <_>
          0 0 4 13 -1.</_>
        <_>
          2 0 2 13 2.</_></rects>
      <tilted>0</tilted></_>
    <_>
      <rects>
        <_>
          0 0 6 17 -1.</_>
        <_>
          2 0 2 17 3.</_></rects>
      <tilted>0</tilted></_>
    <_>
      <rects>
        <_>
          0 0 4 22 -1.</_>
        <_>
          2 0 2 22 2.</_></rects>
      <tilted>0</tilted></_>
    <_>
      <rects>
        <_>
          0 0 4 23 -1.</_>
        <_>
          2 0 2 23 2.</_></rects>
      <tilted>0</tilted></_>
    <_>
      <rects>
        <_>
          0 0 6 24 -1.</_>
        <_>
          2 0 2 24 3.</_></rects>
      <tilted>0</tilted></_>
    <_>
      <rects>
        <_>
          0 0 6 1 -1.</_>
        <_>
          3 0 3 1 2.</_></rects>
      <tilted>0</tilted></_>
    <_>
      <rects>
        <_>
          0 0 6 10 -1.</_>
        <_>
          3 0 3 10 2.</_></rects>
      <tilted>0</tilted></_>
    <_>
      <rects>
        <_>
          0 0 6 22 -1.</_>
        <_>
          0 0 3 11 2.</_>
        <_>
          3 11 3 11 2.</_></rects>
      <tilted>0</tilted></_>
    <_>
      <rects>
        <_>
          0 0 12 1 -1.</_>
        <_>
          4 0 4 1 3.</_></rects>
      <tilted>0</tilted></_>
    <_>
      <rects>
        <_>
          0 0 8 8 -1.</_>
        <_>
          0 0 4 4 2.</_>
        <_>
          4 4 4 4 2.</_></rects>
      <tilted>0</tilted></_>
    <_>
      <rects>
        <_>
          0 0 8 12 -1.</_>
        <_>
          0 0 4 6 2.</_>
        <_>
          4 6 4 6 2.</_></rects>
      <tilted>0</tilted></_>
    <_>
      <rects>
        <_>
          0 0 5 24 -1.</_>
        <_>
          0 8 5 8 3.</_></rects>
      <tilted>0</tilted></_>
    <_>
      <rects>
        <_>
          0 0 14 14 -1.</_>
        <_>
          0 0 7 7 2.</_>
        <_>
          7 7 7 7 2.</_></rects>
      <tilted>0</tilted></_>
    <_>
      <rects>
        <_>
          0 0 14 9 -1.</_>
        <_>
          7 0 7 9 2.</_></rects>
      <tilted>0</tilted></_>
    <_>
      <rects>
        <_>
          0 0 21 24 -1.</_>
        <_>
          7 0 7 24 3.</_></rects>
      <tilted>0</tilted></_>
    <_>
      <rects>
        <_>
          0 0 16 2 -1.</_>
        <_>
          0 0 8 1 2.</_>
        <_>
          8 1 8 1 2.</_></rects>
      <tilted>0</tilted></_>
    <_>
      <rects>
        <_>
          0 0 24 10 -1.</_>
        <_>
          8 0 8 10 3.</_></rects>
      <tilted>0</tilted></_>
    <_>
      <rects>
        <_>
          0 0 18 6 -1.</_>
        <_>
          0 0 9 3 2.</_>
        <_>
          9 3 9 3 2.</_></rects>
      <tilted>0</tilted></_>
    <_>
      <rects>
        <_>
          0 0 22 2 -1.</_>
        <_>
          11 0 11 2 2.</_></rects>
      <tilted>0</tilted></_>
    <_>
      <rects>
        <_>
          0 0 22 19 -1.</_>
        <_>
          11 0 11 19 2.</_></rects>
      <tilted>0</tilted></_>
    <_>
      <rects>
        <_>
          0 0 24 9 -1.</_>
        <_>
          12 0 12 9 2.</_></rects>
      <tilted>0</tilted></_>
    <_>
      <rects>
        <_>
          0 0 14 16 -1.</_>
        <_>
          0 8 14 8 2.</_></rects>
      <tilted>0</tilted></_>
    <_>
      <rects>
        <_>
          0 0 18 14 -1.</_>
        <_>
          0 7 18 7 2.</_></rects>
      <tilted>0</tilted></_>
    <_>
      <rects>
        <_>
          0 0 24 24 -1.</_>
        <_>
          0 8 24 8 3.</_></rects>
      <tilted>0</tilted></_>
    <_>
      <rects>
        <_>
          0 1 9 2 -1.</_>
        <_>
          3 1 3 2 3.</_></rects>
      <tilted>0</tilted></_>
    <_>
      <rects>
        <_>
          0 1 8 12 -1.</_>
        <_>
          0 1 4 6 2.</_>
        <_>
          4 7 4 6 2.</_></rects>
      <tilted>0</tilted></_>
    <_>
      <rects>
        <_>
          0 1 20 12 -1.</_>
        <_>
          0 1 10 6 2.</_>
        <_>
          10 7 10 6 2.</_></rects>
      <tilted>0</tilted></_>
    <_>
      <rects>
        <_>
          0 1 13 3 -1.</_>
        <_>
          0 2 13 1 3.</_></rects>
      <tilted>0</tilted></_>
    <_>
      <rects>
        <_>
          0 2 18 6 -1.</_>
        <_>
          6 2 6 6 3.</_></rects>
      <tilted>0</tilted></_>
    <_>
      <rects>
        <_>
          0 2 18 4 -1.</_>
        <_>
          0 2 9 2 2.</_>
        <_>
          9 4 9 2 2.</_></rects>
      <tilted>0</tilted></_>
    <_>
      <rects>
        <_>
          0 2 24 16 -1.</_>
        <_>
          0 2 12 8 2.</_>
        <_>
          12 10 12 8 2.</_></rects>
      <tilted>0</tilted></_>
    <_>
      <rects>
        <_>
          0 2 24 11 -1.</_>
        <_>
          12 2 12 11 2.</_></rects>
      <tilted>0</tilted></_>
    <_>
      <rects>
        <_>
          0 3 3 19 -1.</_>
        <_>
          1 3 1 19 3.</_></rects>
      <tilted>0</tilted></_>
    <_>
      <rects>
        <_>
          0 3 4 21 -1.</_>
        <_>
          2 3 2 21 2.</_></rects>
      <tilted>0</tilted></_>
    <_>
      <rects>
        <_>
          0 3 3 12 -1.</_>
        <_>
          0 9 3 6 2.</_></rects>
      <tilted>0</tilted></_>
    <_>
      <rects>
        <_>
          0 3 10 10 -1.</_>
        <_>
          0 3 5 5 2.</_>
        <_>
          5 8 5 5 2.</_></rects>
      <tilted>0</tilted></_>
    <_>
      <rects>
        <_>
          0 3 8 16 -1.</_>
        <_>
          0 11 8 8 2.</_></rects>
      <tilted>0</tilted></_>
    <_>
      <rects>
        <_>
          0 3 16 18 -1.</_>
        <_>
          8 3 8 18 2.</_></rects>
      <tilted>0</tilted></_>
    <_>
      <rects>
        <_>
          0 4 4 18 -1.</_>
        <_>
          2 4 2 18 2.</_></rects>
      <tilted>0</tilted></_>
    <_>
      <rects>
        <_>
          0 4 6 9 -1.</_>
        <_>
          0 7 6 3 3.</_></rects>
      <tilted>0</tilted></_>
    <_>
      <rects>
        <_>
          0 5 16 2 -1.</_>
        <_>
          0 5 8 1 2.</_>
        <_>
          8 6 8 1 2.</_></rects>
      <tilted>0</tilted></_>
    <_>
      <rects>
        <_>
          0 6 22 18 -1.</_>
        <_>
          0 15 22 9 2.</_></rects>
      <tilted>0</tilted></_>
    <_>
      <rects>
        <_>
          0 7 4 10 -1.</_>
        <_>
          2 7 2 10 2.</_></rects>
      <tilted>0</tilted></_>
    <_>
      <rects>
        <_>
          0 7 12 16 -1.</_>
        <_>
          0 7 6 8 2.</_>
        <_>
          6 15 6 8 2.</_></rects>
      <tilted>0</tilted></_>
    <_>
      <rects>
        <_>
          0 9 4 10 -1.</_>
        <_>
          2 9 2 10 2.</_></rects>
      <tilted>0</tilted></_>
    <_>
      <rects>
        <_>
          0 11 6 8 -1.</_>
        <_>
          3 11 3 8 2.</_></rects>
      <tilted>0</tilted></_>
    <_>
      <rects>
        <_>
          0 11 8 12 -1.</_>
        <_>
          0 11 4 6 2.</_>
        <_>
          4 17 4 6 2.</_></rects>
      <tilted>0</tilted></_>
    <_>
      <rects>
        <_>
          0 11 13 3 -1.</_>
        <_>
          0 12 13 1 3.</_></rects>
      <tilted>0</tilted></_>
    <_>
      <rects>
        <_>
          0 13 8 3 -1.</_>
        <_>
          4 13 4 3 2.</_></rects>
      <tilted>0</tilted></_>
    <_>
      <rects>
        <_>
          0 13 12 3 -1.</_>
        <_>
          6 13 6 3 2.</_></rects>
      <tilted>0</tilted></_>
    <_>
      <rects>
        <_>
          0 13 7 10 -1.</_>
        <_>
          0 18 7 5 2.</_></rects>
      <tilted>0</tilted></_>
    <_>
      <rects>
        <_>
          0 15 4 2 -1.</_>
        <_>
          0 15 2 1 2.</_>
        <_>
          2 16 2 1 2.</_></rects>
      <tilted>0</tilted></_>
    <_>
      <rects>
        <_>
          0 15 4 4 -1.</_>
        <_>
          0 17 4 2 2.</_></rects>
      <tilted>0</tilted></_>
    <_>
      <rects>
        <_>
          0 16 5 6 -1.</_>
        <_>
          0 18 5 2 3.</_></rects>
      <tilted>0</tilted></_>
    <_>
      <rects>
        <_>
          0 16 12 8 -1.</_>
        <_>
          6 16 6 8 2.</_></rects>
      <tilted>0</tilted></_>
    <_>
      <rects>
        <_>
          0 16 14 8 -1.</_>
        <_>
          0 16 7 4 2.</_>
        <_>
          7 20 7 4 2.</_></rects>
      <tilted>0</tilted></_>
    <_>
      <rects>
        <_>
          0 17 6 3 -1.</_>
        <_>
          3 17 3 3 2.</_></rects>
      <tilted>0</tilted></_>
    <_>
      <rects>
        <_>
          0 17 12 6 -1.</_>
        <_>
          0 17 6 3 2.</_>
        <_>
          6 20 6 3 2.</_></rects>
      <tilted>0</tilted></_>
    <_>
      <rects>
        <_>
          0 18 24 3 -1.</_>
        <_>
          8 18 8 3 3.</_></rects>
      <tilted>0</tilted></_>
    <_>
      <rects>
        <_>
          0 19 18 4 -1.</_>
        <_>
          9 19 9 4 2.</_></rects>
      <tilted>0</tilted></_>
    <_>
      <rects>
        <_>
          0 20 10 2 -1.</_>
        <_>
          5 20 5 2 2.</_></rects>
      <tilted>0</tilted></_>
    <_>
      <rects>
        <_>
          0 20 12 2 -1.</_>
        <_>
          0 20 6 1 2.</_>
        <_>
          6 21 6 1 2.</_></rects>
      <tilted>0</tilted></_>
    <_>
      <rects>
        <_>
          0 22 14 2 -1.</_>
        <_>
          0 23 14 1 2.</_></rects>
      <tilted>0</tilted></_>
    <_>
      <rects>
        <_>
          0 22 20 2 -1.</_>
        <_>
          0 23 20 1 2.</_></rects>
      <tilted>0</tilted></_>
    <_>
      <rects>
        <_>
          1 1 14 2 -1.</_>
        <_>
          1 1 7 1 2.</_>
        <_>
          8 2 7 1 2.</_></rects>
      <tilted>0</tilted></_>
    <_>
      <rects>
        <_>
          1 6 6 13 -1.</_>
        <_>
          3 6 2 13 3.</_></rects>
      <tilted>0</tilted></_>
    <_>
      <rects>
        <_>
          1 10 6 3 -1.</_>
        <_>
          3 10 2 3 3.</_></rects>
      <tilted>0</tilted></_>
    <_>
      <rects>
        <_>
          1 11 6 7 -1.</_>
        <_>
          3 11 2 7 3.</_></rects>
      <tilted>0</tilted></_>
    <_>
      <rects>
        <_>
          1 12 8 10 -1.</_>
        <_>
          1 12 4 5 2.</_>
        <_>
          5 17 4 5 2.</_></rects>
      <tilted>0</tilted></_>
    <_>
      <rects>
        <_>
          1 13 2 1 -1.</_>
        <_>
          2 13 1 1 2.</_></rects>
      <tilted>0</tilted></_>
    <_>
      <rects>
        <_>
          1 14 2 10 -1.</_>
        <_>
          1 14 1 5 2.</_>
        <_>
          2 19 1 5 2.</_></rects>
      <tilted>0</tilted></_>
    <_>
      <rects>
        <_>
          1 14 14 9 -1.</_>
        <_>
          8 14 7 9 2.</_></rects>
      <tilted>0</tilted></_>
    <_>
      <rects>
        <_>
          1 16 8 4 -1.</_>
        <_>
          1 16 4 2 2.</_>
        <_>
          5 18 4 2 2.</_></rects>
      <tilted>0</tilted></_>
    <_>
      <rects>
        <_>
          1 16 4 8 -1.</_>
        <_>
          1 20 4 4 2.</_></rects>
      <tilted>0</tilted></_>
    <_>
      <rects>
        <_>
          1 22 8 2 -1.</_>
        <_>
          1 22 4 1 2.</_>
        <_>
          5 23 4 1 2.</_></rects>
      <tilted>0</tilted></_>
    <_>
      <rects>
        <_>
          1 22 10 2 -1.</_>
        <_>
          1 23 10 1 2.</_></rects>
      <tilted>0</tilted></_>
    <_>
      <rects>
        <_>
          2 0 13 4 -1.</_>
        <_>
          2 2 13 2 2.</_></rects>
      <tilted>0</tilted></_>
    <_>
      <rects>
        <_>
          2 1 15 6 -1.</_>
        <_>
          2 4 15 3 2.</_></rects>
      <tilted>0</tilted></_>
    <_>
      <rects>
        <_>
          2 2 10 8 -1.</_>
        <_>
          2 2 5 4 2.</_>
        <_>
          7 6 5 4 2.</_></rects>
      <tilted>0</tilted></_>
    <_>
      <rects>
        <_>
          2 2 12 10 -1.</_>
        <_>
          2 2 6 5 2.</_>
        <_>
          8 7 6 5 2.</_></rects>
      <tilted>0</tilted></_>
    <_>
      <rects>
        <_>
          2 2 21 2 -1.</_>
        <_>
          9 2 7 2 3.</_></rects>
      <tilted>0</tilted></_>
    <_>
      <rects>
        <_>
          2 4 3 1 -1.</_>
        <_>
          3 4 1 1 3.</_></rects>
      <tilted>0</tilted></_>
    <_>
      <rects>
        <_>
          2 4 22 18 -1.</_>
        <_>
          2 10 22 6 3.</_></rects>
      <tilted>0</tilted></_>
    <_>
      <rects>
        <_>
          2 6 6 8 -1.</_>
        <_>
          2 6 3 4 2.</_>
        <_>
          5 10 3 4 2.</_></rects>
      <tilted>0</tilted></_>
    <_>
      <rects>
        <_>
          2 7 3 4 -1.</_>
        <_>
          3 7 1 4 3.</_></rects>
      <tilted>0</tilted></_>
    <_>
      <rects>
        <_>
          2 8 10 13 -1.</_>
        <_>
          7 8 5 13 2.</_></rects>
      <tilted>0</tilted></_>
    <_>
      <rects>
        <_>
          2 12 6 4 -1.</_>
        <_>
          5 12 3 4 2.</_></rects>
      <tilted>0</tilted></_>
    <_>
      <rects>
        <_>
          2 13 6 10 -1.</_>
        <_>
          2 13 3 5 2.</_>
        <_>
          5 18 3 5 2.</_></rects>
      <tilted>0</tilted></_>
    <_>
      <rects>
        <_>
          2 14 6 10 -1.</_>
        <_>
          2 14 3 5 2.</_>
        <_>
          5 19 3 5 2.</_></rects>
      <tilted>0</tilted></_>
    <_>
      <rects>
        <_>
          2 16 6 6 -1.</_>
        <_>
          2 16 3 3 2.</_>
        <_>
          5 19 3 3 2.</_></rects>
      <tilted>0</tilted></_>
    <_>
      <rects>
        <_>
          2 21 8 1 -1.</_>
        <_>
          6 21 4 1 2.</_></rects>
      <tilted>0</tilted></_>
    <_>
      <rects>
        <_>
          2 22 12 2 -1.</_>
        <_>
          2 22 6 1 2.</_>
        <_>
          8 23 6 1 2.</_></rects>
      <tilted>0</tilted></_>
    <_>
      <rects>
        <_>
          3 0 2 1 -1.</_>
        <_>
          4 0 1 1 2.</_></rects>
      <tilted>0</tilted></_>
    <_>
      <rects>
        <_>
          3 0 3 2 -1.</_>
        <_>
          4 0 1 2 3.</_></rects>
      <tilted>0</tilted></_>
    <_>
      <rects>
        <_>
          3 0 6 16 -1.</_>
        <_>
          3 0 3 8 2.</_>
        <_>
          6 8 3 8 2.</_></rects>
      <tilted>0</tilted></_>
    <_>
      <rects>
        <_>
          3 0 21 3 -1.</_>
        <_>
          10 0 7 3 3.</_></rects>
      <tilted>0</tilted></_>
    <_>
      <rects>
        <_>
          3 1 15 9 -1.</_>
        <_>
          8 1 5 9 3.</_></rects>
      <tilted>0</tilted></_>
    <_>
      <rects>
        <_>
          3 2 21 3 -1.</_>
        <_>
          10 2 7 3 3.</_></rects>
      <tilted>0</tilted></_>
    <_>
      <rects>
        <_>
          3 2 14 6 -1.</_>
        <_>
          3 5 14 3 2.</_></rects>
      <tilted>0</tilted></_>
    <_>
      <rects>
        <_>
          3 3 1 2 -1.</_>
        <_>
          3 4 1 1 2.</_></rects>
      <tilted>0</tilted></_>
    <_>
      <rects>
        <_>
          3 3 18 15 -1.</_>
        <_>
          12 3 9 15 2.</_></rects>
      <tilted>0</tilted></_>
    <_>
      <rects>
        <_>
          3 6 21 15 -1.</_>
        <_>
          10 6 7 15 3.</_></rects>
      <tilted>0</tilted></_>
    <_>
      <rects>
        <_>
          3 8 8 4 -1.</_>
        <_>
          3 8 4 2 2.</_>
        <_>
          7 10 4 2 2.</_></rects>
      <tilted>0</tilted></_>
    <_>
      <rects>
        <_>
          3 10 1 3 -1.</_>
        <_>
          3 11 1 1 3.</_></rects>
      <tilted>0</tilted></_>
    <_>
      <rects>
        <_>
          3 11 3 11 -1.</_>
        <_>
          4 11 1 11 3.</_></rects>
      <tilted>0</tilted></_>
    <_>
      <rects>
        <_>
          3 11 12 5 -1.</_>
        <_>
          9 11 6 5 2.</_></rects>
      <tilted>0</tilted></_>
    <_>
      <rects>
        <_>
          3 13 4 10 -1.</_>
        <_>
          3 13 2 5 2.</_>
        <_>
          5 18 2 5 2.</_></rects>
      <tilted>0</tilted></_>
    <_>
      <rects>
        <_>
          3 14 4 4 -1.</_>
        <_>
          5 14 2 4 2.</_></rects>
      <tilted>0</tilted></_>
    <_>
      <rects>
        <_>
          3 16 9 1 -1.</_>
        <_>
          6 16 3 1 3.</_></rects>
      <tilted>0</tilted></_>
    <_>
      <rects>
        <_>
          3 16 14 6 -1.</_>
        <_>
          3 16 7 3 2.</_>
        <_>
          10 19 7 3 2.</_></rects>
      <tilted>0</tilted></_>
    <_>
      <rects>
        <_>
          4 0 2 6 -1.</_>
        <_>
          4 0 1 3 2.</_>
        <_>
          5 3 1 3 2.</_></rects>
      <tilted>0</tilted></_>
    <_>
      <rects>
        <_>
          4 0 3 10 -1.</_>
        <_>
          5 0 1 10 3.</_></rects>
      <tilted>0</tilted></_>
    <_>
      <rects>
        <_>
          4 0 4 8 -1.</_>
        <_>
          4 4 4 4 2.</_></rects>
      <tilted>0</tilted></_>
    <_>
      <rects>
        <_>
          4 0 9 12 -1.</_>
        <_>
          4 6 9 6 2.</_></rects>
      <tilted>0</tilted></_>
    <_>
      <rects>
        <_>
          4 1 20 14 -1.</_>
        <_>
          4 8 20 7 2.</_></rects>
      <tilted>0</tilted></_>
    <_>
      <rects>
        <_>
          4 2 7 6 -1.</_>
        <_>
          4 5 7 3 2.</_></rects>
      <tilted>0</tilted></_>
    <_>
      <rects>
        <_>
          4 9 2 8 -1.</_>
        <_>
          5 9 1 8 2.</_></rects>
      <tilted>0</tilted></_>
    <_>
      <rects>
        <_>
          4 9 12 14 -1.</_>
        <_>
          4 9 6 7 2.</_>
        <_>
          10 16 6 7 2.</_></rects>
      <tilted>0</tilted></_>
    <_>
      <rects>
        <_>
          4 9 20 12 -1.</_>
        <_>
          14 9 10 12 2.</_></rects>
      <tilted>0</tilted></_>
    <_>
      <rects>
        <_>
          4 11 18 4 -1.</_>
        <_>
          13 11 9 4 2.</_></rects>
      <tilted>0</tilted></_>
    <_>
      <rects>
        <_>
          4 16 16 5 -1.</_>
        <_>
          12 16 8 5 2.</_></rects>
      <tilted>0</tilted></_>
    <_>
      <rects>
        <_>
          4 22 16 2 -1.</_>
        <_>
          4 23 16 1 2.</_></rects>
      <tilted>0</tilted></_>
    <_>
      <rects>
        <_>
          5 0 2 6 -1.</_>
        <_>
          6 0 1 6 2.</_></rects>
      <tilted>0</tilted></_>
    <_>
      <rects>
        <_>
          5 0 8 12 -1.</_>
        <_>
          5 6 8 6 2.</_></rects>
      <tilted>0</tilted></_>
    <_>
      <rects>
        <_>
          5 0 13 9 -1.</_>
        <_>
          5 3 13 3 3.</_></rects>
      <tilted>0</tilted></_>
    <_>
      <rects>
        <_>
          5 0 19 21 -1.</_>
        <_>
          5 7 19 7 3.</_></rects>
      <tilted>0</tilted></_>
    <_>
      <rects>
        <_>
          5 1 8 2 -1.</_>
        <_>
          9 1 4 2 2.</_></rects>
      <tilted>0</tilted></_>
    <_>
      <rects>
        <_>
          5 2 10 6 -1.</_>
        <_>
          5 2 5 3 2.</_>
        <_>
          10 5 5 3 2.</_></rects>
      <tilted>0</tilted></_>
    <_>
      <rects>
        <_>
          5 7 18 15 -1.</_>
        <_>
          5 12 18 5 3.</_></rects>
      <tilted>0</tilted></_>
    <_>
      <rects>
        <_>
          5 8 12 10 -1.</_>
        <_>
          5 8 6 5 2.</_>
        <_>
          11 13 6 5 2.</_></rects>
      <tilted>0</tilted></_>
    <_>
      <rects>
        <_>
          5 14 18 9 -1.</_>
        <_>
          11 14 6 9 3.</_></rects>
      <tilted>0</tilted></_>
    <_>
      <rects>
        <_>
          5 22 14 2 -1.</_>
        <_>
          5 23 14 1 2.</_></rects>
      <tilted>0</tilted></_>
    <_>
      <rects>
        <_>
          5 22 18 2 -1.</_>
        <_>
          5 23 18 1 2.</_></rects>
      <tilted>0</tilted></_>
    <_>
      <rects>
        <_>
          6 0 18 15 -1.</_>
        <_>
          12 0 6 15 3.</_></rects>
      <tilted>0</tilted></_>
    <_>
      <rects>
        <_>
          6 0 10 8 -1.</_>
        <_>
          6 4 10 4 2.</_></rects>
      <tilted>0</tilted></_>
    <_>
      <rects>
        <_>
          6 0 10 12 -1.</_>
        <_>
          6 6 10 6 2.</_></rects>
      <tilted>0</tilted></_>
    <_>
      <rects>
        <_>
          6 0 13 4 -1.</_>
        <_>
          6 2 13 2 2.</_></rects>
      <tilted>0</tilted></_>
    <_>
      <rects>
        <_>
          6 1 11 6 -1.</_>
        <_>
          6 3 11 2 3.</_></rects>
      <tilted>0</tilted></_>
    <_>
      <rects>
        <_>
          6 1 14 6 -1.</_>
        <_>
          6 4 14 3 2.</_></rects>
      <tilted>0</tilted></_>
    <_>
      <rects>
        <_>
          6 22 14 2 -1.</_>
        <_>
          6 23 14 1 2.</_></rects>
      <tilted>0</tilted></_>
    <_>
      <rects>
        <_>
          7 0 11 9 -1.</_>
        <_>
          7 3 11 3 3.</_></rects>
      <tilted>0</tilted></_>
    <_>
      <rects>
        <_>
          7 1 1 21 -1.</_>
        <_>
          7 8 1 7 3.</_></rects>
      <tilted>0</tilted></_>
    <_>
      <rects>
        <_>
          7 2 11 3 -1.</_>
        <_>
          7 3 11 1 3.</_></rects>
      <tilted>0</tilted></_>
    <_>
      <rects>
        <_>
          7 3 4 16 -1.</_>
        <_>
          9 3 2 16 2.</_></rects>
      <tilted>0</tilted></_>
    <_>
      <rects>
        <_>
          7 5 11 10 -1.</_>
        <_>
          7 10 11 5 2.</_></rects>
      <tilted>0</tilted></_>
    <_>
      <rects>
        <_>
          7 6 2 1 -1.</_>
        <_>
          8 6 1 1 2.</_></rects>
      <tilted>0</tilted></_>
    <_>
      <rects>
        <_>
          7 8 8 3 -1.</_>
        <_>
          11 8 4 3 2.</_></rects>
      <tilted>0</tilted></_>
    <_>
      <rects>
        <_>
          7 9 6 15 -1.</_>
        <_>
          7 14 6 5 3.</_></rects>
      <tilted>0</tilted></_>
    <_>
      <rects>
        <_>
          7 20 1 2 -1.</_>
        <_>
          7 21 1 1 2.</_></rects>
      <tilted>0</tilted></_>
    <_>
      <rects>
        <_>
          7 21 1 2 -1.</_>
        <_>
          7 22 1 1 2.</_></rects>
      <tilted>0</tilted></_>
    <_>
      <rects>
        <_>
          7 22 13 2 -1.</_>
        <_>
          7 23 13 1 2.</_></rects>
      <tilted>0</tilted></_>
    <_>
      <rects>
        <_>
          7 22 14 2 -1.</_>
        <_>
          7 23 14 1 2.</_></rects>
      <tilted>0</tilted></_>
    <_>
      <rects>
        <_>
          7 22 15 2 -1.</_>
        <_>
          7 23 15 1 2.</_></rects>
      <tilted>0</tilted></_>
    <_>
      <rects>
        <_>
          8 2 14 6 -1.</_>
        <_>
          8 2 7 3 2.</_>
        <_>
          15 5 7 3 2.</_></rects>
      <tilted>0</tilted></_>
    <_>
      <rects>
        <_>
          8 3 14 14 -1.</_>
        <_>
          8 3 7 7 2.</_>
        <_>
          15 10 7 7 2.</_></rects>
      <tilted>0</tilted></_>
    <_>
      <rects>
        <_>
          8 11 14 2 -1.</_>
        <_>
          8 11 7 1 2.</_>
        <_>
          15 12 7 1 2.</_></rects>
      <tilted>0</tilted></_>
    <_>
      <rects>
        <_>
          8 16 8 8 -1.</_>
        <_>
          8 20 8 4 2.</_></rects>
      <tilted>0</tilted></_>
    <_>
      <rects>
        <_>
          9 0 15 6 -1.</_>
        <_>
          14 0 5 6 3.</_></rects>
      <tilted>0</tilted></_>
    <_>
      <rects>
        <_>
          9 0 7 3 -1.</_>
        <_>
          9 1 7 1 3.</_></rects>
      <tilted>0</tilted></_>
    <_>
      <rects>
        <_>
          9 1 9 2 -1.</_>
        <_>
          9 2 9 1 2.</_></rects>
      <tilted>0</tilted></_>
    <_>
      <rects>
        <_>
          9 2 12 6 -1.</_>
        <_>
          9 2 6 3 2.</_>
        <_>
          15 5 6 3 2.</_></rects>
      <tilted>0</tilted></_>
    <_>
      <rects>
        <_>
          10 0 5 22 -1.</_>
        <_>
          10 11 5 11 2.</_></rects>
      <tilted>0</tilted></_>
    <_>
      <rects>
        <_>
          10 2 10 8 -1.</_>
        <_>
          10 2 5 4 2.</_>
        <_>
          15 6 5 4 2.</_></rects>
      <tilted>0</tilted></_>
    <_>
      <rects>
        <_>
          10 2 14 22 -1.</_>
        <_>
          17 2 7 22 2.</_></rects>
      <tilted>0</tilted></_>
    <_>
      <rects>
        <_>
          10 3 2 6 -1.</_>
        <_>
          10 5 2 2 3.</_></rects>
      <tilted>0</tilted></_>
    <_>
      <rects>
        <_>
          10 4 1 2 -1.</_>
        <_>
          10 5 1 1 2.</_></rects>
      <tilted>0</tilted></_>
    <_>
      <rects>
        <_>
          10 6 12 3 -1.</_>
        <_>
          14 6 4 3 3.</_></rects>
      <tilted>0</tilted></_>
    <_>
      <rects>
        <_>
          10 12 11 2 -1.</_>
        <_>
          10 13 11 1 2.</_></rects>
      <tilted>0</tilted></_>
    <_>
      <rects>
        <_>
          10 16 7 8 -1.</_>
        <_>
          10 20 7 4 2.</_></rects>
      <tilted>0</tilted></_>
    <_>
      <rects>
        <_>
          10 17 14 6 -1.</_>
        <_>
          10 17 7 3 2.</_>
        <_>
          17 20 7 3 2.</_></rects>
      <tilted>0</tilted></_>
    <_>
      <rects>
        <_>
          10 18 2 6 -1.</_>
        <_>
          10 20 2 2 3.</_></rects>
      <tilted>0</tilted></_>
    <_>
      <rects>
        <_>
          10 20 11 3 -1.</_>
        <_>
          10 21 11 1 3.</_></rects>
      <tilted>0</tilted></_>
    <_>
      <rects>
        <_>
          11 0 8 6 -1.</_>
        <_>
          11 3 8 3 2.</_></rects>
      <tilted>0</tilted></_>
    <_>
      <rects>
        <_>
          11 1 3 7 -1.</_>
        <_>
          12 1 1 7 3.</_></rects>
      <tilted>0</tilted></_>
    <_>
      <rects>
        <_>
          11 2 9 6 -1.</_>
        <_>
          11 4 9 2 3.</_></rects>
      <tilted>0</tilted></_>
    <_>
      <rects>
        <_>
          11 4 2 2 -1.</_>
        <_>
          11 5 2 1 2.</_></rects>
      <tilted>0</tilted></_>
    <_>
      <rects>
        <_>
          11 16 9 5 -1.</_>
        <_>
          14 16 3 5 3.</_></rects>
      <tilted>0</tilted></_>
    <_>
      <rects>
        <_>
          11 18 12 4 -1.</_>
        <_>
          11 18 6 2 2.</_>
        <_>
          17 20 6 2 2.</_></rects>
      <tilted>0</tilted></_>
    <_>
      <rects>
        <_>
          12 0 3 9 -1.</_>
        <_>
          13 0 1 9 3.</_></rects>
      <tilted>0</tilted></_>
    <_>
      <rects>
        <_>
          12 2 12 10 -1.</_>
        <_>
          12 2 6 5 2.</_>
        <_>
          18 7 6 5 2.</_></rects>
      <tilted>0</tilted></_>
    <_>
      <rects>
        <_>
          12 3 8 2 -1.</_>
        <_>
          12 3 4 1 2.</_>
        <_>
          16 4 4 1 2.</_></rects>
      <tilted>0</tilted></_>
    <_>
      <rects>
        <_>
          12 3 5 16 -1.</_>
        <_>
          12 11 5 8 2.</_></rects>
      <tilted>0</tilted></_>
    <_>
      <rects>
        <_>
          12 5 2 2 -1.</_>
        <_>
          12 5 1 1 2.</_>
        <_>
          13 6 1 1 2.</_></rects>
      <tilted>0</tilted></_>
    <_>
      <rects>
        <_>
          12 11 10 3 -1.</_>
        <_>
          12 12 10 1 3.</_></rects>
      <tilted>0</tilted></_>
    <_>
      <rects>
        <_>
          12 16 12 8 -1.</_>
        <_>
          12 16 6 4 2.</_>
        <_>
          18 20 6 4 2.</_></rects>
      <tilted>0</tilted></_>
    <_>
      <rects>
        <_>
          12 18 12 4 -1.</_>
        <_>
          12 18 6 2 2.</_>
        <_>
          18 20 6 2 2.</_></rects>
      <tilted>0</tilted></_>
    <_>
      <rects>
        <_>
          13 7 1 3 -1.</_>
        <_>
          13 8 1 1 3.</_></rects>
      <tilted>0</tilted></_>
    <_>
      <rects>
        <_>
          13 16 8 8 -1.</_>
        <_>
          13 16 4 4 2.</_>
        <_>
          17 20 4 4 2.</_></rects>
      <tilted>0</tilted></_>
    <_>
      <rects>
        <_>
          14 10 9 2 -1.</_>
        <_>
          14 11 9 1 2.</_></rects>
      <tilted>0</tilted></_>
    <_>
      <rects>
        <_>
          14 11 10 4 -1.</_>
        <_>
          19 11 5 4 2.</_></rects>
      <tilted>0</tilted></_>
    <_>
      <rects>
        <_>
          15 2 6 3 -1.</_>
        <_>
          18 2 3 3 2.</_></rects>
      <tilted>0</tilted></_>
    <_>
      <rects>
        <_>
          15 2 4 2 -1.</_>
        <_>
          15 3 4 1 2.</_></rects>
      <tilted>0</tilted></_>
    <_>
      <rects>
        <_>
          15 2 8 12 -1.</_>
        <_>
          15 2 4 6 2.</_>
        <_>
          19 8 4 6 2.</_></rects>
      <tilted>0</tilted></_>
    <_>
      <rects>
        <_>
          15 6 8 8 -1.</_>
        <_>
          19 6 4 8 2.</_></rects>
      <tilted>0</tilted></_>
    <_>
      <rects>
        <_>
          15 18 6 4 -1.</_>
        <_>
          15 18 3 2 2.</_>
        <_>
          18 20 3 2 2.</_></rects>
      <tilted>0</tilted></_>
    <_>
      <rects>
        <_>
          15 22 1 2 -1.</_>
        <_>
          15 23 1 1 2.</_></rects>
      <tilted>0</tilted></_>
    <_>
      <rects>
        <_>
          16 0 7 18 -1.</_>
        <_>
          16 6 7 6 3.</_></rects>
      <tilted>0</tilted></_>
    <_>
      <rects>
        <_>
          16 1 4 3 -1.</_>
        <_>
          16 2 4 1 3.</_></rects>
      <tilted>0</tilted></_>
    <_>
      <rects>
        <_>
          16 9 6 14 -1.</_>
        <_>
          16 9 3 7 2.</_>
        <_>
          19 16 3 7 2.</_></rects>
      <tilted>0</tilted></_>
    <_>
      <rects>
        <_>
          16 18 8 4 -1.</_>
        <_>
          16 18 4 2 2.</_>
        <_>
          20 20 4 2 2.</_></rects>
      <tilted>0</tilted></_>
    <_>
      <rects>
        <_>
          17 7 4 14 -1.</_>
        <_>
          17 7 2 7 2.</_>
        <_>
          19 14 2 7 2.</_></rects>
      <tilted>0</tilted></_>
    <_>
      <rects>
        <_>
          17 16 3 8 -1.</_>
        <_>
          17 20 3 4 2.</_></rects>
      <tilted>0</tilted></_>
    <_>
      <rects>
        <_>
          18 0 6 1 -1.</_>
        <_>
          21 0 3 1 2.</_></rects>
      <tilted>0</tilted></_>
    <_>
      <rects>
        <_>
          18 16 2 1 -1.</_>
        <_>
          19 16 1 1 2.</_></rects>
      <tilted>0</tilted></_>
    <_>
      <rects>
        <_>
          18 16 6 1 -1.</_>
        <_>
          20 16 2 1 3.</_></rects>
      <tilted>0</tilted></_>
    <_>
      <rects>
        <_>
          19 3 5 12 -1.</_>
        <_>
          19 7 5 4 3.</_></rects>
      <tilted>0</tilted></_>
    <_>
      <rects>
        <_>
          19 12 5 3 -1.</_>
        <_>
          19 13 5 1 3.</_></rects>
      <tilted>0</tilted></_>
    <_>
      <rects>
        <_>
          20 0 3 12 -1.</_>
        <_>
          20 6 3 6 2.</_></rects>
      <tilted>0</tilted></_>
    <_>
      <rects>
        <_>
          20 1 3 10 -1.</_>
        <_>
          20 6 3 5 2.</_></rects>
      <tilted>0</tilted></_>
    <_>
      <rects>
        <_>
          20 6 4 17 -1.</_>
        <_>
          22 6 2 17 2.</_></rects>
      <tilted>0</tilted></_>
    <_>
      <rects>
        <_>
          20 13 2 5 -1.</_>
        <_>
          21 13 1 5 2.</_></rects>
      <tilted>0</tilted></_>
    <_>
      <rects>
        <_>
          21 0 2 8 -1.</_>
        <_>
          21 0 1 4 2.</_>
        <_>
          22 4 1 4 2.</_></rects>
      <tilted>0</tilted></_>
    <_>
      <rects>
        <_>
          21 1 2 6 -1.</_>
        <_>
          21 3 2 2 3.</_></rects>
      <tilted>0</tilted></_>
    <_>
      <rects>
        <_>
          21 14 2 2 -1.</_>
        <_>
          21 15 2 1 2.</_></rects>
      <tilted>0</tilted></_>
    <_>
      <rects>
        <_>
          22 6 2 14 -1.</_>
        <_>
          23 6 1 14 2.</_></rects>
      <tilted>0</tilted></_>
    <_>
      <rects>
        <_>
          22 7 2 11 -1.</_>
        <_>
          23 7 1 11 2.</_></rects>
      <tilted>0</tilted></_>
    <_>
      <rects>
        <_>
          22 7 2 3 -1.</_>
        <_>
          22 8 2 1 3.</_></rects>
      <tilted>0</tilted></_>
    <_>
      <rects>
        <_>
          22 8 2 10 -1.</_>
        <_>
          23 8 1 10 2.</_></rects>
      <tilted>0</tilted></_>
    <_>
      <rects>
        <_>
          22 10 2 1 -1.</_>
        <_>
          23 10 1 1 2.</_></rects>
      <tilted>0</tilted></_>
    <_>
      <rects>
        <_>
          22 11 2 7 -1.</_>
        <_>
          23 11 1 7 2.</_></rects>
      <tilted>0</tilted></_></features></cascade>
</opencv_storage>
